digraph Tree {
node [shape=box] ;
0 [label="Price <= 92.5\ngini = 0.4838\nsamples = 400\nvalue = [236, 164]"] ;
1 [label="ShelveLoc <= 0.5\ngini = 0.3496\nsamples = 62\nvalue = [14, 48]"] ;
0 -> 1 [labeldistance=2.5, labelangle=45, headlabel="True"] ;
2 [label="Income <= 58.0\ngini = 0.4986\nsamples = 19\nvalue = [10, 9]"] ;
1 -> 2 ;
3 [label="gini = 0.0\nsamples = 7\nvalue = [7, 0]"] ;
2 -> 3 ;
4 [label="Advertising <= 9.5\ngini = 0.375\nsamples = 12\nvalue = [3, 9]"] ;
2 -> 4 ;
5 [label="Advertising <= 6.5\ngini = 0.5\nsamples = 6\nvalue = [3, 3]"] ;
4 -> 5 ;
6 [label="Population <= 120.0\ngini = 0.375\nsamples = 4\nvalue = [1, 3]"] ;
5 -> 6 ;
7 [label="gini = 0.0\nsamples = 1\nvalue = [1, 0]"] ;
6 -> 7 ;
8 [label="gini = 0.0\nsamples = 3\nvalue = [0, 3]"] ;
6 -> 8 ;
9 [label="gini = 0.0\nsamples = 2\nvalue = [2, 0]"] ;
5 -> 9 ;
10 [label="gini = 0.0\nsamples = 6\nvalue = [0, 6]"] ;
4 -> 10 ;
11 [label="Population <= 198.5\ngini = 0.1687\nsamples = 43\nvalue = [4, 39]"] ;
1 -> 11 ;
12 [label="Age <= 64.0\ngini = 0.3599\nsamples = 17\nvalue = [4, 13]"] ;
11 -> 12 ;
13 [label="Population <= 189.5\ngini = 0.142\nsamples = 13\nvalue = [1, 12]"] ;
12 -> 13 ;
14 [label="gini = 0.0\nsamples = 12\nvalue = [0, 12]"] ;
13 -> 14 ;
15 [label="gini = 0.0\nsamples = 1\nvalue = [1, 0]"] ;
13 -> 15 ;
16 [label="Income <= 67.5\ngini = 0.375\nsamples = 4\nvalue = [3, 1]"] ;
12 -> 16 ;
17 [label="gini = 0.0\nsamples = 1\nvalue = [0, 1]"] ;
16 -> 17 ;
18 [label="gini = 0.0\nsamples = 3\nvalue = [3, 0]"] ;
16 -> 18 ;
19 [label="gini = 0.0\nsamples = 26\nvalue = [0, 26]"] ;
11 -> 19 ;
20 [label="Advertising <= 6.5\ngini = 0.4508\nsamples = 338\nvalue = [222, 116]"] ;
0 -> 20 [labeldistance=2.5, labelangle=-45, headlabel="False"] ;
21 [label="CompPrice <= 144.5\ngini = 0.312\nsamples = 181\nvalue = [146, 35]"] ;
20 -> 21 ;
22 [label="Age <= 50.5\ngini = 0.2423\nsamples = 156\nvalue = [134, 22]"] ;
21 -> 22 ;
23 [label="Price <= 100.5\ngini = 0.387\nsamples = 61\nvalue = [45, 16]"] ;
22 -> 23 ;
24 [label="Advertising <= 4.5\ngini = 0.2778\nsamples = 6\nvalue = [1, 5]"] ;
23 -> 24 ;
25 [label="gini = 0.0\nsamples = 5\nvalue = [0, 5]"] ;
24 -> 25 ;
26 [label="gini = 0.0\nsamples = 1\nvalue = [1, 0]"] ;
24 -> 26 ;
27 [label="Age <= 48.5\ngini = 0.32\nsamples = 55\nvalue = [44, 11]"] ;
23 -> 27 ;
28 [label="CompPrice <= 131.5\ngini = 0.282\nsamples = 53\nvalue = [44, 9]"] ;
27 -> 28 ;
29 [label="Price <= 153.0\ngini = 0.1107\nsamples = 34\nvalue = [32, 2]"] ;
28 -> 29 ;
30 [label="Age <= 25.5\ngini = 0.0624\nsamples = 31\nvalue = [30, 1]"] ;
29 -> 30 ;
31 [label="ShelveLoc <= 1.5\ngini = 0.375\nsamples = 4\nvalue = [3, 1]"] ;
30 -> 31 ;
32 [label="gini = 0.0\nsamples = 1\nvalue = [0, 1]"] ;
31 -> 32 ;
33 [label="gini = 0.0\nsamples = 3\nvalue = [3, 0]"] ;
31 -> 33 ;
34 [label="gini = 0.0\nsamples = 27\nvalue = [27, 0]"] ;
30 -> 34 ;
35 [label="Price <= 156.0\ngini = 0.4444\nsamples = 3\nvalue = [2, 1]"] ;
29 -> 35 ;
36 [label="gini = 0.0\nsamples = 1\nvalue = [0, 1]"] ;
35 -> 36 ;
37 [label="gini = 0.0\nsamples = 2\nvalue = [2, 0]"] ;
35 -> 37 ;
38 [label="Price <= 130.0\ngini = 0.4654\nsamples = 19\nvalue = [12, 7]"] ;
28 -> 38 ;
39 [label="Population <= 241.0\ngini = 0.42\nsamples = 10\nvalue = [3, 7]"] ;
38 -> 39 ;
40 [label="Population <= 68.5\ngini = 0.2449\nsamples = 7\nvalue = [1, 6]"] ;
39 -> 40 ;
41 [label="gini = 0.0\nsamples = 1\nvalue = [1, 0]"] ;
40 -> 41 ;
42 [label="gini = 0.0\nsamples = 6\nvalue = [0, 6]"] ;
40 -> 42 ;
43 [label="Income <= 66.0\ngini = 0.4444\nsamples = 3\nvalue = [2, 1]"] ;
39 -> 43 ;
44 [label="gini = 0.0\nsamples = 2\nvalue = [2, 0]"] ;
43 -> 44 ;
45 [label="gini = 0.0\nsamples = 1\nvalue = [0, 1]"] ;
43 -> 45 ;
46 [label="gini = 0.0\nsamples = 9\nvalue = [9, 0]"] ;
38 -> 46 ;
47 [label="gini = 0.0\nsamples = 2\nvalue = [0, 2]"] ;
27 -> 47 ;
48 [label="Income <= 102.5\ngini = 0.1183\nsamples = 95\nvalue = [89, 6]"] ;
22 -> 48 ;
49 [label="CompPrice <= 121.5\ngini = 0.0722\nsamples = 80\nvalue = [77, 3]"] ;
48 -> 49 ;
50 [label="gini = 0.0\nsamples = 39\nvalue = [39, 0]"] ;
49 -> 50 ;
51 [label="Price <= 103.0\ngini = 0.1356\nsamples = 41\nvalue = [38, 3]"] ;
49 -> 51 ;
52 [label="Price <= 99.5\ngini = 0.48\nsamples = 5\nvalue = [3, 2]"] ;
51 -> 52 ;
53 [label="gini = 0.0\nsamples = 3\nvalue = [3, 0]"] ;
52 -> 53 ;
54 [label="gini = 0.0\nsamples = 2\nvalue = [0, 2]"] ;
52 -> 54 ;
55 [label="Population <= 116.5\ngini = 0.054\nsamples = 36\nvalue = [35, 1]"] ;
51 -> 55 ;
56 [label="Population <= 106.5\ngini = 0.1975\nsamples = 9\nvalue = [8, 1]"] ;
55 -> 56 ;
57 [label="gini = 0.0\nsamples = 8\nvalue = [8, 0]"] ;
56 -> 57 ;
58 [label="gini = 0.0\nsamples = 1\nvalue = [0, 1]"] ;
56 -> 58 ;
59 [label="gini = 0.0\nsamples = 27\nvalue = [27, 0]"] ;
55 -> 59 ;
60 [label="Age <= 63.5\ngini = 0.32\nsamples = 15\nvalue = [12, 3]"] ;
48 -> 60 ;
61 [label="Education <= 12.5\ngini = 0.5\nsamples = 6\nvalue = [3, 3]"] ;
60 -> 61 ;
62 [label="gini = 0.0\nsamples = 2\nvalue = [0, 2]"] ;
61 -> 62 ;
63 [label="Income <= 112.0\ngini = 0.375\nsamples = 4\nvalue = [3, 1]"] ;
61 -> 63 ;
64 [label="gini = 0.0\nsamples = 3\nvalue = [3, 0]"] ;
63 -> 64 ;
65 [label="gini = 0.0\nsamples = 1\nvalue = [0, 1]"] ;
63 -> 65 ;
66 [label="gini = 0.0\nsamples = 9\nvalue = [9, 0]"] ;
60 -> 66 ;
67 [label="Price <= 151.5\ngini = 0.4992\nsamples = 25\nvalue = [12, 13]"] ;
21 -> 67 ;
68 [label="ShelveLoc <= 0.5\ngini = 0.4321\nsamples = 19\nvalue = [6, 13]"] ;
67 -> 68 ;
69 [label="gini = 0.0\nsamples = 4\nvalue = [4, 0]"] ;
68 -> 69 ;
70 [label="Age <= 63.5\ngini = 0.2311\nsamples = 15\nvalue = [2, 13]"] ;
68 -> 70 ;
71 [label="gini = 0.0\nsamples = 12\nvalue = [0, 12]"] ;
70 -> 71 ;
72 [label="Population <= 338.5\ngini = 0.4444\nsamples = 3\nvalue = [2, 1]"] ;
70 -> 72 ;
73 [label="gini = 0.0\nsamples = 2\nvalue = [2, 0]"] ;
72 -> 73 ;
74 [label="gini = 0.0\nsamples = 1\nvalue = [0, 1]"] ;
72 -> 74 ;
75 [label="gini = 0.0\nsamples = 6\nvalue = [6, 0]"] ;
67 -> 75 ;
76 [label="ShelveLoc <= 0.5\ngini = 0.4995\nsamples = 157\nvalue = [76, 81]"] ;
20 -> 76 ;
77 [label="Age <= 46.0\ngini = 0.2188\nsamples = 32\nvalue = [28, 4]"] ;
76 -> 77 ;
78 [label="Price <= 125.0\ngini = 0.3911\nsamples = 15\nvalue = [11, 4]"] ;
77 -> 78 ;
79 [label="Population <= 332.5\ngini = 0.4898\nsamples = 7\nvalue = [3, 4]"] ;
78 -> 79 ;
80 [label="gini = 0.0\nsamples = 3\nvalue = [0, 3]"] ;
79 -> 80 ;
81 [label="Price <= 122.0\ngini = 0.375\nsamples = 4\nvalue = [3, 1]"] ;
79 -> 81 ;
82 [label="gini = 0.0\nsamples = 3\nvalue = [3, 0]"] ;
81 -> 82 ;
83 [label="gini = 0.0\nsamples = 1\nvalue = [0, 1]"] ;
81 -> 83 ;
84 [label="gini = 0.0\nsamples = 8\nvalue = [8, 0]"] ;
78 -> 84 ;
85 [label="gini = 0.0\nsamples = 17\nvalue = [17, 0]"] ;
77 -> 85 ;
86 [label="ShelveLoc <= 1.5\ngini = 0.4731\nsamples = 125\nvalue = [48, 77]"] ;
76 -> 86 ;
87 [label="Price <= 163.5\ngini = 0.1841\nsamples = 39\nvalue = [4, 35]"] ;
86 -> 87 ;
88 [label="Income <= 35.0\ngini = 0.1023\nsamples = 37\nvalue = [2, 35]"] ;
87 -> 88 ;
89 [label="Age <= 63.0\ngini = 0.5\nsamples = 4\nvalue = [2, 2]"] ;
88 -> 89 ;
90 [label="gini = 0.0\nsamples = 2\nvalue = [0, 2]"] ;
89 -> 90 ;
91 [label="gini = 0.0\nsamples = 2\nvalue = [2, 0]"] ;
89 -> 91 ;
92 [label="gini = 0.0\nsamples = 33\nvalue = [0, 33]"] ;
88 -> 92 ;
93 [label="gini = 0.0\nsamples = 2\nvalue = [2, 0]"] ;
87 -> 93 ;
94 [label="Price <= 124.5\ngini = 0.4997\nsamples = 86\nvalue = [44, 42]"] ;
86 -> 94 ;
95 [label="CompPrice <= 121.5\ngini = 0.4444\nsamples = 51\nvalue = [17, 34]"] ;
94 -> 95 ;
96 [label="Income <= 102.5\ngini = 0.42\nsamples = 20\nvalue = [14, 6]"] ;
95 -> 96 ;
97 [label="Price <= 102.5\ngini = 0.2311\nsamples = 15\nvalue = [13, 2]"] ;
96 -> 97 ;
98 [label="Price <= 99.0\ngini = 0.4444\nsamples = 3\nvalue = [1, 2]"] ;
97 -> 98 ;
99 [label="gini = 0.0\nsamples = 1\nvalue = [1, 0]"] ;
98 -> 99 ;
100 [label="gini = 0.0\nsamples = 2\nvalue = [0, 2]"] ;
98 -> 100 ;
101 [label="gini = 0.0\nsamples = 12\nvalue = [12, 0]"] ;
97 -> 101 ;
102 [label="Education <= 16.5\ngini = 0.32\nsamples = 5\nvalue = [1, 4]"] ;
96 -> 102 ;
103 [label="gini = 0.0\nsamples = 4\nvalue = [0, 4]"] ;
102 -> 103 ;
104 [label="gini = 0.0\nsamples = 1\nvalue = [1, 0]"] ;
102 -> 104 ;
105 [label="Age <= 49.5\ngini = 0.1748\nsamples = 31\nvalue = [3, 28]"] ;
95 -> 105 ;
106 [label="gini = 0.0\nsamples = 17\nvalue = [0, 17]"] ;
105 -> 106 ;
107 [label="Age <= 52.0\ngini = 0.3367\nsamples = 14\nvalue = [3, 11]"] ;
105 -> 107 ;
108 [label="gini = 0.0\nsamples = 1\nvalue = [1, 0]"] ;
107 -> 108 ;
109 [label="Education <= 10.5\ngini = 0.2604\nsamples = 13\nvalue = [2, 11]"] ;
107 -> 109 ;
110 [label="Price <= 109.0\ngini = 0.48\nsamples = 5\nvalue = [2, 3]"] ;
109 -> 110 ;
111 [label="gini = 0.0\nsamples = 2\nvalue = [0, 2]"] ;
110 -> 111 ;
112 [label="Advertising <= 12.5\ngini = 0.4444\nsamples = 3\nvalue = [2, 1]"] ;
110 -> 112 ;
113 [label="gini = 0.0\nsamples = 1\nvalue = [0, 1]"] ;
112 -> 113 ;
114 [label="gini = 0.0\nsamples = 2\nvalue = [2, 0]"] ;
112 -> 114 ;
115 [label="gini = 0.0\nsamples = 8\nvalue = [0, 8]"] ;
109 -> 115 ;
116 [label="Advertising <= 22.0\ngini = 0.3527\nsamples = 35\nvalue = [27, 8]"] ;
94 -> 116 ;
117 [label="Education <= 10.5\ngini = 0.2637\nsamples = 32\nvalue = [27, 5]"] ;
116 -> 117 ;
118 [label="Price <= 136.0\ngini = 0.5\nsamples = 6\nvalue = [3, 3]"] ;
117 -> 118 ;
119 [label="Income <= 27.0\ngini = 0.375\nsamples = 4\nvalue = [1, 3]"] ;
118 -> 119 ;
120 [label="gini = 0.0\nsamples = 1\nvalue = [1, 0]"] ;
119 -> 120 ;
121 [label="gini = 0.0\nsamples = 3\nvalue = [0, 3]"] ;
119 -> 121 ;
122 [label="gini = 0.0\nsamples = 2\nvalue = [2, 0]"] ;
118 -> 122 ;
123 [label="US <= 0.5\ngini = 0.142\nsamples = 26\nvalue = [24, 2]"] ;
117 -> 123 ;
124 [label="gini = 0.0\nsamples = 1\nvalue = [0, 1]"] ;
123 -> 124 ;
125 [label="Advertising <= 15.5\ngini = 0.0768\nsamples = 25\nvalue = [24, 1]"] ;
123 -> 125 ;
126 [label="gini = 0.0\nsamples = 20\nvalue = [20, 0]"] ;
125 -> 126 ;
127 [label="Age <= 44.5\ngini = 0.32\nsamples = 5\nvalue = [4, 1]"] ;
125 -> 127 ;
128 [label="gini = 0.0\nsamples = 1\nvalue = [0, 1]"] ;
127 -> 128 ;
129 [label="gini = 0.0\nsamples = 4\nvalue = [4, 0]"] ;
127 -> 129 ;
130 [label="gini = 0.0\nsamples = 3\nvalue = [0, 3]"] ;
116 -> 130 ;
}